{"output":[[1.0,0.0,0.0,1.0,0.0,0.0],[0.12330171195518037,0.9495573862284639,0.9905973024696175,0.12399010751889042,0.018431245298413803],[0.9603655009414822,0.9995565214612633,0.9986743420715599,0.009385615731007874,0.007842140019456793],[1.9792558950003532E-4,0.9978931665025782,7.129613592993342E-4]],"weights":[null,[[4.800106999379477,-3.4721764407823454,-3.2865636170770354,-6.0100131092825375,4.912602381387076,6.6724574392573155],[3.452858462444188,-1.0759485695624447,-4.928901714770229,-4.947661641317988,2.0637757947593762,-1.9319602315360502],[2.3725297144796813,6.173237301735244,1.6677727328619185,8.246703908958128,-1.138319936865875,0.45598426954644306],[-3.2684857950775736,5.256175487623988,1.850293212049216,4.623578215231352,-2.556029074399467,3.3086526257738464],[-1.2542292003666742,7.6181955573813,-3.8413417221037314,-1.8699213834418056,-3.7406866132806065,4.0909875743980795]],[[-12.393422915704313,-0.8127013829092189,0.8072998784379509,3.7614623390111346,-0.9439361405461867],[-1.1894156968572203,5.453193507501567,7.948336419080184,-3.438634548041969,5.480427456554726],[-1.725462159390883,5.714710477127384,0.041737390574038274,-8.129118668836167,-10.103025313496735],[-5.575698251575133,-9.030042845287888,7.309890023080804,2.70984159214689,-2.2877557196709044],[-4.048700551746506,2.359130996891228,-8.034453268741201,-5.478470530419528,-3.77614241797746]],[[6.7931800868902235,-6.728429704759162,-8.287859598274474,8.084198766593575,-5.915452419922165],[6.418681701957899,-12.595581024572102,12.667060275761921,-6.573385229082188,4.98308065147516],[-7.43535199309882,13.68910507660595,-7.433632990182692,-7.833865505210706,-5.153757277858154]]],"bias":[[0.506825552738067,0.6206397352584564,0.6939437146773251,0.5550900040202014,0.6695443133294028,0.6730887904445388],[-0.7516239255508705,4.429962898864983,-5.961922166991122,-3.3102677929755564,-0.8509541769763874],[4.2387566578953155,-4.859300686313697,2.5636235088366264,-2.93209495207132,2.1264940387874853],[-0.07852416139713825,-0.04147082629500511,-6.250028752667829]],"error_signal":[[0.0,0.0,0.0,0.0,0.0,0.0],[1.5823686491309163E-6,-9.152576625642275E-8,2.3501237436167065E-8,-2.516537477973387E-7,4.153005293933111E-8],[-1.2158127068464392E-6,2.7696556189613117E-8,-7.970933861788577E-8,2.366548800935091E-7,-1.9390589348208449E-7],[3.9166785335215695E-8,-4.429395684179455E-6,5.079514916849637E-7]],"output_derivative":[[0.0,0.0,0.0,0.0,0.0,0.0],[0.1080983997841021,0.04789815648743177,0.009314286809534614,0.10861656075634442,0.018091534495163503],[0.03806360554289814,4.43281865522399E-4,0.0013239005594968467,0.009297525948357732,0.007780640859372027],[1.9788641496105638E-4,0.002102394750035942,7.124530453994803E-4]],"NETWORK_LAYER_SIZES":[6,5,5,3],"INPUT_SIZE":6,"OUTPUT_SIZE":3,"NETWORK_SIZE":4,"network_LAYER_SIZES":[6,5,5,3],"output_SIZE":3,"input_SIZE":6,"network_SIZE":4}