{"output":[[1.0,0.0,0.0,1.0,1.0,0.0],[0.9967930399027592,0.16033262929367506,0.99924461681964,0.09365236317251716,0.14275388588527213],[0.20985427553219618,3.4659418993355167E-4,0.055674314469519946,0.0022630421066478566,0.7779763835598749],[0.9987411992433761]],"weights":[null,[[5.942832569714309,-3.383897383036474,-2.7613098426953324,-5.206750410652002,0.5004220822336309,-3.045452917024932],[-2.2036690266329844,1.9743538604823492,0.98737019986257,2.326082451650925,-1.3184395498998789,-2.0310434661743826],[-0.5322514201164251,-3.613994057054223,5.7015127226135265,3.124211570039439,2.125863839910959,-4.2060435255712845],[-1.2564582782707585,-3.077060135485002,6.383994231268016,-2.8340952616325814,-2.5402638586319526,-2.2204015085546427],[0.9708431792096522,-4.2323294883917395,2.1090708222207155,-2.026724170650927,1.2732017126846842,0.7307185752230609]],[[1.4224155416480913,0.391239716157337,-3.073208153228829,-2.7454611805125544,-0.43285047588897446],[-6.331307364700818,2.812587392813135,1.1947682293119533,2.0857247784899196,-5.744131676799144],[-0.4745301707869573,0.06982843073568193,-1.854960957508906,-1.0720904720578315,-0.446912289422562],[-4.497055120319337,1.9572930184032074,0.7581230158264414,0.9867702682598146,-4.709945045146653],[5.118811128963167,2.425844493782539,-6.032611901496617,-4.682263755036016,1.6033869439672381]],[[2.829855059920009,-6.785048843513626,0.5080224442815505,-4.160974668071121,9.267503366430907]]],"bias":[[0.49040465238937747,0.6318002560975253,0.64618804803639,0.41034397503743053,0.5823105684236127,0.6685032221192282],[4.502715500099001,-0.45972807711215696,2.469705739351407,4.360982700855377,-2.0099231498889583],[0.5834109671340733,-2.676157368196686,-0.35137755489907213,-2.0975651573047007,2.000247712399352],[-1.1439346365304552]],"error_signal":[[0.0,0.0,0.0,0.0,0.0,0.0],[-4.5055195091872245E-8,-8.615308014622353E-7,1.3329249246155412E-8,1.1856557669976631E-6,-4.666185642951976E-7],[-7.426020594388727E-7,3.720408796330832E-9,-4.226944191371576E-8,1.4868622046796905E-8,-2.533350480664002E-6],[-1.5825846751985889E-6]],"output_derivative":[[0.0,0.0,0.0,0.0,0.0,0.0],[0.0031966755041754574,0.13462607727745202,7.548125766107768E-4,0.0848815980447201,0.12237521394992683],[0.16581545857305327,3.46474062401056E-4,0.052574685177868945,0.0022579207470713953,0.17272913018297334],[0.0012572161772790023]],"NETWORK_LAYER_SIZES":[6,5,5,1],"INPUT_SIZE":6,"OUTPUT_SIZE":1,"NETWORK_SIZE":4,"output_SIZE":1,"network_SIZE":4,"input_SIZE":6,"network_LAYER_SIZES":[6,5,5,1]}