{"output":[[1.0,1.0,0.0,1.0,0.0,0.0],[0.9883791286743406,0.05564085612484303,0.037626717442174704,0.9686605005040746,0.004386497187248098,0.08035525584845371,0.8726486416342849,0.15369825074152932,0.4281998028206985,0.5201058770690593],[0.12441242851101723,3.917310770511053E-4,0.9641423080072128,0.9626511830023614,0.07879212831945127,6.539289249241876E-9,0.0244251040435158,0.23453827304147742,0.8069993015401663,0.7554351171379149],[7.474749235265421E-12,2.0394788639784133E-4,0.999736948860173]],"weights":[null,[[0.41435282807082124,2.818170643838607,-6.493388457441984,3.489540867058854,0.6596235508727825,4.2768357344012555],[-6.010641864738286,-3.772290729758613,-2.500469922280796,5.1311258791847,-5.168514201589794,0.284247435735358],[0.08625393461813237,-5.175799324599941,2.0389832820147795,0.17758464529948195,-0.6158621161130292,-2.3124987701232036],[-1.7348480958434498,1.1604628494163094,-3.392795301210788,3.0066235647525756,-2.114493370852725,3.718854175715728],[0.1911618965039457,-5.582669791078169,4.173115507921338,-2.6918845160236198,2.0842760335828965,0.25063751966939607],[-0.5907000568207145,-3.454609918489617,-1.7064170563238603,1.969425802249623,-0.5660631172410027,1.8942190897879008],[-2.717913080961599,5.511288763092368,1.019087687926137,-1.0177346492924535,-3.4071890016954463,-0.5498277331731123],[1.0252831909542937,-4.190279570328863,0.44138955344375636,0.9986803913050373,0.3329305935338824,0.7554179803629173],[1.511086796297082,-4.967566549856363,-1.8927437191559287,-2.070425564103862,0.3837432004757564,-0.4082435352617705],[1.3887114812955323,-1.938213993262279,-1.8426891027021766,-2.1556725979675164,0.3226054372353777,-0.22527033043536074]],[[1.0188527417003672,-3.96809299574833,-1.1592648181564928,-0.8057501970585937,-2.2877011509633247,-0.6664508104211437,-1.2113454136167168,-0.8396533941159555,0.07784494916800037,0.28408231498857933],[-6.22404623323973,-0.4779631837092045,0.6961104201212566,-1.1097307258881792,1.8486069339423683,-1.4815045310465704,0.9010379278836845,-1.2346485093631543,-1.0075424964873645,0.8100735125693569],[1.2512100477844694,-1.6016422057850828,-2.74925900816697,0.2700981885027796,-3.9461784328648397,-2.1517535284238005,3.557886597722624,-2.331135470735855,-1.9875756379232565,-0.7023484091075651],[0.9507466261122792,-1.6319429665521834,-3.071874823651934,0.5842715623742063,-2.997460529472225,-2.3370290121128803,3.8513782499997125,-2.464356238896791,-2.2791162883459695,-0.8467549547772617],[-0.3602477515989088,1.9855817833003937,-3.932713662362905,0.21403271289548165,0.014147143514971905,-1.4498190318482982,2.9341191975303342,-1.9047223542079579,-6.122806848497345,-3.411018152267457],[-7.106274668925749,-6.67453202766276,3.7627771265343624,-6.544029247980193,2.8559429704178365,-3.0640525801641822,-5.180014648231435,0.6666844977956502,0.6750583800059611,0.5086932349191298],[-1.4978986972075803,0.871604987004916,-0.994507910318781,-0.9344378776616754,0.07094014355386634,-1.3771097075080867,1.2184429166649988,-1.1310695027444648,-2.545158516993039,-1.3192061336985434],[0.2777357208417353,0.6387949637828755,-3.1285105988826576,-0.09133034274074685,-0.5847150663575211,-1.4561140067140852,2.2681594565482457,-2.0510148482527155,-4.540071550684663,-2.1355858855866536],[1.4554557472922192,-6.769922075401984,-0.8900461375065919,0.8382937637531694,-3.377407937788125,-0.3917675551741528,-0.8124957608528663,-2.4048543625176473,1.6084301804422878,1.251580885320313],[1.1186190997923524,-3.3026052168116244,-1.1680399119542761,-0.31665620413499385,-4.559054560510271,-2.2610240072691794,2.0468094567239232,-2.1933910215367245,0.3479856858114665,0.19244708489529977]],[[-4.634919380373118,4.55247149576483,1.1855955421410551,2.5114865971570524,4.3956536773357975,-9.072854745080246,-0.016893675769811666,3.273907450831826,-33.55041134147396,-2.6060457843880953],[0.3072916873771292,4.585158975539255,-5.067379873917829,-5.0877832313526214,-0.5359523269068127,8.373356381607037,0.3496376855467962,-1.885543012482071,5.0392571916942,-2.1556091357996294],[0.2883872401378271,-30.138429923593957,2.6107947032038163,1.4362202532092918,-7.840552041542081,-3.417693603419416,-2.6737893189409476,-3.8343165155800847,5.034341735966183,3.3815590230887054]]],"bias":[[0.36138004659112666,0.5008929521209099,0.555092450425821,0.6382987346147674,0.4492653517120618,0.5885327031012895],[-2.278800712980774,1.8202178956002992,1.6702727141760016,0.998796605167178,2.658564276879684,-0.3616457805730465,0.14894210208172073,0.46043126900650316,5.237705726034397,2.785642075803315],[-0.8447661278265547,-1.0929544685240868,0.6460359856438657,0.5852458021658669,-0.028029545475189745,-1.1550899695557986,-0.3159664801388203,0.2235628219791651,-0.6245046002996641,-0.9398067440383023],[-0.6753304767758584,-0.7163666785554992,-0.7158137970812778]],"error_signal":[[0.0,0.0,0.0,0.0,0.0,0.0],[-1.6495655968183403E-9,2.5578749179721237E-8,-3.4767494000855923E-9,-2.7779297866918077E-10,1.821572514868699E-9,6.499148174736575E-9,-1.7914270394283479E-10,1.2440367892132191E-8,-9.7856403177518E-8,-5.6345862139585494E-8],[-7.811497060963998E-10,8.910688982932409E-10,-1.3529448131856956E-8,-1.1179366379693252E-8,3.775112687680223E-8,3.823161007250752E-15,4.7539494978640885E-9,3.354277411831024E-8,-2.160277544387233E-8,-5.978090084924048E-8],[5.587187612968337E-23,4.158625720676385E-8,-6.917770010337608E-8]],"output_derivative":[[0.0,0.0,0.0,0.0,0.0,0.0],[0.011485826675291834,0.05254495125453754,0.03621094757670145,0.030357335267270295,0.004367255829674362,0.07389828870598325,0.1111329898881223,0.13007509846052331,0.24484473168501342,0.24959575370728387],[0.10893397614300826,3.9157762381437764E-4,0.034571917917737616,0.03595388286651549,0.07258392883434239,6.539289206479572E-9,0.02382851833597923,0.17953007152019881,0.15575142885385004,0.1847529009327397],[7.47474923520955E-12,2.0390629165747517E-4,2.6298194392488863E-4]],"NETWORK_LAYER_SIZES":[6,10,10,3],"INPUT_SIZE":6,"OUTPUT_SIZE":3,"NETWORK_SIZE":4,"input_SIZE":6,"network_SIZE":4,"output_SIZE":3,"network_LAYER_SIZES":[6,10,10,3]}