{"output":[[0.0,0.0,1.0,0.0,1.0,1.0],[0.9762032009463316,0.3686766932620785,0.32056091253659275,0.9987535026661732,0.997552285668456],[0.004218831186485794,0.003301682328496332,0.02638923403411014,0.015505935057033968,0.0010195860743357917],[0.24649276605463463]],"weights":[null,[[3.752687250622132,-3.364083595787412,-0.4986948333858048,-4.046556276380196,2.062218304864952,-0.38076313716599075],[7.206744860435618,-3.6232890270923006,0.1749650827048773,-5.321718740949069,-2.9908165790808106,-1.1405860796178109],[-1.0459425432436757,2.9477787337262162,1.0382415232658129,0.9133620969805091,-0.035638319092408846,-0.013171952277419834],[0.8231617907471661,-3.944603769794708,7.270842943496187,2.7810206872319507,0.6375179875588999,-4.54887316672976],[0.3482391827499487,-3.894045725616767,6.026061616737157,-3.3964669600422615,-2.902971155048147,-0.8316974552719897]],[[0.31397959585592394,0.8772261719585491,-0.05876312238180396,-3.3815720400396803,-2.884554039045157],[2.4946871609201486,6.463263664354277,2.4807282863185693,-5.332400636425634,-7.99388245370979],[-0.7457106412541323,-0.35085296763945184,-0.7599875317200266,-1.005040637603754,-0.8142501681576907],[-2.406116680218251,-2.085890896819958,-0.6148316083564632,0.3540518887439953,0.08888162474969447],[-7.341584923597844,-10.130818837022428,3.519374785592354,2.009528672712607,1.907145248352146]],[[2.628082178363925,9.650924386080995,0.17133005032320964,-0.035111617062496804,-9.303045475459983]]],"bias":[[0.39615010283447244,0.5459891731590532,0.46413115984723907,0.642725979812947,0.35485512014820797,0.4686255182346106],[2.5315565846363626,3.4226232859370787,-1.7401124192119386,3.326666551556099,3.718714479833204],[0.18044996179563857,1.9785298441770518,-0.690812166212079,-1.2782423767208837,-1.0236978951088802],[-1.1407101351084579]],"error_signal":[[0.0,0.0,0.0,0.0,0.0,0.0],[-1.6436217055001547E-4,-0.003403102765382158,-4.284217202398243E-4,1.3502659320662477E-5,3.534553359657333E-5],[-5.198369083692677E-4,-0.0014953669774770064,-2.068148586156908E-4,2.539478851374675E-5,4.461579602248671E-4],[-0.04708493346272735]],"output_derivative":[[0.0,0.0,0.0,0.0,0.0,0.0],[0.02323051140846771,0.2327541891074178,0.2178016138902997,0.00124494357822352,0.0024417230260951584],[0.004201032649905729,0.0032907812222980268,0.025692842361203103,0.015265501035041013,0.0010185465185728122],[0.1857340823373698]],"NETWORK_LAYER_SIZES":[6,5,5,1],"INPUT_SIZE":6,"OUTPUT_SIZE":1,"NETWORK_SIZE":4,"network_LAYER_SIZES":[6,5,5,1],"output_SIZE":1,"input_SIZE":6,"network_SIZE":4}