{"output":[[0.0,0.0,0.0,0.0,0.0,1.0],[0.0016991977829264428,0.9878503965277021,0.9982275289296446,0.10140973319475638,0.8066159774761235],[0.00852333928248153,0.008817882820861586,7.823685914888138E-4,6.042970452018308E-4,0.007894872806948023],[0.4912727713064859]],"weights":[null,[[0.501213072803561,-0.23889901686871737,5.723894138827781,-1.0264311458706992,2.0374390141883985,-7.533529860585837],[2.910592944571073,-6.2411171275556105,-0.51596207956904,-1.2304248572489298,0.150049556977565,-0.1638374387790246],[-3.0795657216575663,-7.996191692785601,5.254036186293202,4.649693142164847,0.7470198213194315,1.4683019606777812],[6.049514490270078,-9.029904499288612,-3.78880089725748,2.3655590701219493,7.573928822839107,0.023923508075391713],[-1.7779573368079418,2.119983770294936,1.6698209009803788,4.219495760854351,2.9075274398994155,2.7121968759014616]],[[-8.954438745857164,-1.121175036825501,-4.079376145951582,7.334444441670257,0.1895504366878643],[6.283546142345656,-4.2359947987089965,4.0844220513578335,-8.742837131344551,-3.136768119056156],[0.7781527083123005,-9.188926078360154,3.8943662773797154,-4.363844983414947,-0.3718022874851963],[-0.378469945982401,-1.512358559938752,-9.564604806073127,-1.182766743887258,2.0597965570586414],[-0.6715069874186739,-1.1233507332688064,-1.1431306525172422,-0.5438953695745004,-1.4400739909858522]],[[1.3009318437176616,-1.2673718400038778,-7.529000987709884,9.227498923292186,0.25050923119725627]]],"bias":[[0.33038197029141364,0.5284396136380528,0.31223764694464595,0.6623275125545515,0.3960635074440834,0.6908761149415399],[1.1576086909432346,4.562143637201067,4.865281864360284,-2.2042224915223807,-1.2834598530178207],[-0.4566283821169264,-1.2102062804751763,-1.2222811528319724,2.0906902448998244,-1.3646530007640258],[0.0016624269528542068]],"error_signal":[[0.0,0.0,0.0,0.0,0.0,0.0],[3.7968345139701554E-5,-1.1910981178087986E-4,3.7920460856656544E-5,-0.0022651782601113258,-9.454969849894714E-4],[-0.001397432797776992,0.0014087363924709393,7.483473611683977E-4,-7.085386199908463E-4,-2.4917063152956877E-4],[-0.12714306020785385]],"output_derivative":[[0.0,0.0,0.0,0.0,0.0,0.0],[0.0016963105098209406,0.012001990607763803,0.0017693294166601392,0.0911257992081247,0.15598664235636137],[0.008450691969957238,0.00874012776341914,7.817564908758657E-4,6.039318702829912E-4,0.007832543790310136],[0.24992383547933109]],"NETWORK_LAYER_SIZES":[6,5,5,1],"INPUT_SIZE":6,"OUTPUT_SIZE":1,"NETWORK_SIZE":4,"network_LAYER_SIZES":[6,5,5,1],"input_SIZE":6,"output_SIZE":1,"network_SIZE":4}